<?xml version="1.0"?>
<opencv_storage>
<cascade>
  <stageType>BOOST</stageType>
  <featureType>HAAR</featureType>
  <height>30</height>
  <width>30</width>
  <stageParams>
    <boostType>GAB</boostType>
    <minHitRate>9.9500000476837158e-01</minHitRate>
    <maxFalseAlarm>7.9999998211860657e-02</maxFalseAlarm>
    <weightTrimRate>9.4999999999999996e-01</weightTrimRate>
    <maxDepth>1</maxDepth>
    <maxWeakCount>100</maxWeakCount></stageParams>
  <featureParams>
    <maxCatCount>0</maxCatCount>
    <featSize>1</featSize>
    <mode>BASIC</mode></featureParams>
  <stageNum>6</stageNum>
  <stages>
    <!-- stage 0 -->
    <_>
      <maxWeakCount>4</maxWeakCount>
      <stageThreshold>-5.8168751001358032e-01</stageThreshold>
      <weakClassifiers>
        <_>
          <internalNodes>
            0 -1 7 -1.0000080801546574e-02</internalNodes>
          <leafValues>
            7.9591834545135498e-01 -9.3181818723678589e-01</leafValues></_>
        <_>
          <internalNodes>
            0 -1 23 1.9147340208292007e-02</internalNodes>
          <leafValues>
            -9.2408728599548340e-01 6.4573192596435547e-01</leafValues></_>
        <_>
          <internalNodes>
            0 -1 18 -7.7840196900069714e-03</internalNodes>
          <leafValues>
            5.5815058946609497e-01 -9.4524925947189331e-01</leafValues></_>
        <_>
          <internalNodes>
            0 -1 13 -3.3801810350269079e-03</internalNodes>
          <leafValues>
            7.2736942768096924e-01 -8.5375183820724487e-01</leafValues></_></weakClassifiers></_>
    <!-- stage 1 -->
    <_>
      <maxWeakCount>4</maxWeakCount>
      <stageThreshold>-7.8844839334487915e-01</stageThreshold>
      <weakClassifiers>
        <_>
          <internalNodes>
            0 -1 27 -4.7442123293876648e-02</internalNodes>
          <leafValues>
            3.6363637447357178e-01 -9.3322205543518066e-01</leafValues></_>
        <_>
          <internalNodes>
            0 -1 1 5.1300041377544403e-02</internalNodes>
          <leafValues>
            -7.8346961736679077e-01 7.2508031129837036e-01</leafValues></_>
        <_>
          <internalNodes>
            0 -1 24 -2.7846880257129669e-02</internalNodes>
          <leafValues>
            5.6935894489288330e-01 -9.1226834058761597e-01</leafValues></_>
        <_>
          <internalNodes>
            0 -1 22 5.4290099069476128e-03</internalNodes>
          <leafValues>
            -9.3797409534454346e-01 4.5014795660972595e-01</leafValues></_></weakClassifiers></_>
    <!-- stage 2 -->
    <_>
      <maxWeakCount>7</maxWeakCount>
      <stageThreshold>-9.5064342021942139e-01</stageThreshold>
      <weakClassifiers>
        <_>
          <internalNodes>
            0 -1 2 8.7770245969295502e-02</internalNodes>
          <leafValues>
            -9.1637629270553589e-01 -9.8901100456714630e-02</leafValues></_>
        <_>
          <internalNodes>
            0 -1 6 -1.4171740971505642e-02</internalNodes>
          <leafValues>
            4.8892939090728760e-01 -7.0084244012832642e-01</leafValues></_>
        <_>
          <internalNodes>
            0 -1 17 -8.3266906440258026e-03</internalNodes>
          <leafValues>
            4.3678900599479675e-01 -6.8515223264694214e-01</leafValues></_>
        <_>
          <internalNodes>
            0 -1 28 5.2720494568347931e-04</internalNodes>
          <leafValues>
            -6.8648183345794678e-01 4.5420435070991516e-01</leafValues></_>
        <_>
          <internalNodes>
            0 -1 9 -5.7318080216646194e-03</internalNodes>
          <leafValues>
            3.4866446256637573e-01 -8.7070083618164062e-01</leafValues></_>
        <_>
          <internalNodes>
            0 -1 32 4.2676115408539772e-03</internalNodes>
          <leafValues>
            -8.1881463527679443e-01 4.0032076835632324e-01</leafValues></_>
        <_>
          <internalNodes>
            0 -1 8 -1.4480286044999957e-03</internalNodes>
          <leafValues>
            -9.7394239902496338e-01 2.4596202373504639e-01</leafValues></_></weakClassifiers></_>
    <!-- stage 3 -->
    <_>
      <maxWeakCount>7</maxWeakCount>
      <stageThreshold>-7.6826453208923340e-01</stageThreshold>
      <weakClassifiers>
        <_>
          <internalNodes>
            0 -1 19 -1.3646837323904037e-02</internalNodes>
          <leafValues>
            6.8000000715255737e-01 -8.6250001192092896e-01</leafValues></_>
        <_>
          <internalNodes>
            0 -1 0 1.1369904875755310e-01</internalNodes>
          <leafValues>
            -6.8559622764587402e-01 4.1259565949440002e-01</leafValues></_>
        <_>
          <internalNodes>
            0 -1 4 2.0170365460216999e-03</internalNodes>
          <leafValues>
            3.0066904425621033e-01 -8.4571266174316406e-01</leafValues></_>
        <_>
          <internalNodes>
            0 -1 36 -3.0004763975739479e-03</internalNodes>
          <leafValues>
            6.2496882677078247e-01 -4.7712436318397522e-01</leafValues></_>
        <_>
          <internalNodes>
            0 -1 3 -3.7001864984631538e-03</internalNodes>
          <leafValues>
            4.5127353072166443e-01 -7.4645978212356567e-01</leafValues></_>
        <_>
          <internalNodes>
            0 -1 12 1.1615293333306909e-03</internalNodes>
          <leafValues>
            3.0864217877388000e-01 -1.</leafValues></_>
        <_>
          <internalNodes>
            0 -1 21 5.8715683408081532e-03</internalNodes>
          <leafValues>
            -8.0618047714233398e-01 3.1436067819595337e-01</leafValues></_></weakClassifiers></_>
    <!-- stage 4 -->
    <_>
      <maxWeakCount>9</maxWeakCount>
      <stageThreshold>-8.9821261167526245e-01</stageThreshold>
      <weakClassifiers>
        <_>
          <internalNodes>
            0 -1 34 6.7357234656810760e-03</internalNodes>
          <leafValues>
            -8.5426354408264160e-01 8.0000001192092896e-01</leafValues></_>
        <_>
          <internalNodes>
            0 -1 35 2.9856692999601364e-03</internalNodes>
          <leafValues>
            -5.9319913387298584e-01 4.9891793727874756e-01</leafValues></_>
        <_>
          <internalNodes>
            0 -1 15 -3.0421512201428413e-03</internalNodes>
          <leafValues>
            -8.7949556112289429e-01 2.9920497536659241e-01</leafValues></_>
        <_>
          <internalNodes>
            0 -1 14 1.1647341307252645e-03</internalNodes>
          <leafValues>
            1.9539524614810944e-01 -1.</leafValues></_>
        <_>
          <internalNodes>
            0 -1 11 5.4131327196955681e-03</internalNodes>
          <leafValues>
            -7.9359352588653564e-01 2.7273431420326233e-01</leafValues></_>
        <_>
          <internalNodes>
            0 -1 38 -2.4160326574929059e-04</internalNodes>
          <leafValues>
            -9.5054483413696289e-01 2.1076568961143494e-01</leafValues></_>
        <_>
          <internalNodes>
            0 -1 30 -1.0637247469276190e-03</internalNodes>
          <leafValues>
            -7.3461449146270752e-01 3.0947661399841309e-01</leafValues></_>
        <_>
          <internalNodes>
            0 -1 25 2.7258938644081354e-04</internalNodes>
          <leafValues>
            2.2168965637683868e-01 -9.2466938495635986e-01</leafValues></_>
        <_>
          <internalNodes>
            0 -1 26 -4.4943729881197214e-04</internalNodes>
          <leafValues>
            -9.6399146318435669e-01 2.1868410706520081e-01</leafValues></_></weakClassifiers></_>
    <!-- stage 5 -->
    <_>
      <maxWeakCount>8</maxWeakCount>
      <stageThreshold>-7.7722078561782837e-01</stageThreshold>
      <weakClassifiers>
        <_>
          <internalNodes>
            0 -1 10 -4.5878915116190910e-03</internalNodes>
          <leafValues>
            2.3076923191547394e-01 -8.9233279228210449e-01</leafValues></_>
        <_>
          <internalNodes>
            0 -1 37 8.7348921224474907e-03</internalNodes>
          <leafValues>
            -6.6557520627975464e-01 5.3395909070968628e-01</leafValues></_>
        <_>
          <internalNodes>
            0 -1 20 -1.7129637300968170e-02</internalNodes>
          <leafValues>
            5.6846076250076294e-01 -5.6968009471893311e-01</leafValues></_>
        <_>
          <internalNodes>
            0 -1 5 -2.6300862431526184e-02</internalNodes>
          <leafValues>
            5.1923799514770508e-01 -5.5847024917602539e-01</leafValues></_>
        <_>
          <internalNodes>
            0 -1 29 6.0919579118490219e-02</internalNodes>
          <leafValues>
            -4.4811934232711792e-01 6.1664640903472900e-01</leafValues></_>
        <_>
          <internalNodes>
            0 -1 31 -7.0441327989101410e-04</internalNodes>
          <leafValues>
            -8.8417071104049683e-01 3.6345905065536499e-01</leafValues></_>
        <_>
          <internalNodes>
            0 -1 33 -2.2749491035938263e-02</internalNodes>
          <leafValues>
            8.1096506118774414e-01 -3.6132171750068665e-01</leafValues></_>
        <_>
          <internalNodes>
            0 -1 16 2.1548010408878326e-02</internalNodes>
          <leafValues>
            3.2183450460433960e-01 -1.</leafValues></_></weakClassifiers></_></stages>
  <features>
    <_>
      <rects>
        <_>
          0 3 15 23 -1.</_>
        <_>
          5 3 5 23 3.</_></rects>
      <tilted>0</tilted></_>
    <_>
      <rects>
        <_>
          0 11 8 15 -1.</_>
        <_>
          4 11 4 15 2.</_></rects>
      <tilted>0</tilted></_>
    <_>
      <rects>
        <_>
          0 14 15 10 -1.</_>
        <_>
          5 14 5 10 3.</_></rects>
      <tilted>0</tilted></_>
    <_>
      <rects>
        <_>
          2 5 14 4 -1.</_>
        <_>
          2 5 7 2 2.</_>
        <_>
          9 7 7 2 2.</_></rects>
      <tilted>0</tilted></_>
    <_>
      <rects>
        <_>
          3 17 4 6 -1.</_>
        <_>
          3 19 4 2 3.</_></rects>
      <tilted>0</tilted></_>
    <_>
      <rects>
        <_>
          4 3 10 24 -1.</_>
        <_>
          4 3 5 12 2.</_>
        <_>
          9 15 5 12 2.</_></rects>
      <tilted>0</tilted></_>
    <_>
      <rects>
        <_>
          4 6 6 6 -1.</_>
        <_>
          6 6 2 6 3.</_></rects>
      <tilted>0</tilted></_>
    <_>
      <rects>
        <_>
          4 10 10 4 -1.</_>
        <_>
          4 10 5 2 2.</_>
        <_>
          9 12 5 2 2.</_></rects>
      <tilted>0</tilted></_>
    <_>
      <rects>
        <_>
          4 17 3 6 -1.</_>
        <_>
          4 19 3 2 3.</_></rects>
      <tilted>0</tilted></_>
    <_>
      <rects>
        <_>
          5 8 20 8 -1.</_>
        <_>
          5 8 10 4 2.</_>
        <_>
          15 12 10 4 2.</_></rects>
      <tilted>0</tilted></_>
    <_>
      <rects>
        <_>
          5 9 4 3 -1.</_>
        <_>
          5 10 4 1 3.</_></rects>
      <tilted>0</tilted></_>
    <_>
      <rects>
        <_>
          6 9 2 21 -1.</_>
        <_>
          6 16 2 7 3.</_></rects>
      <tilted>0</tilted></_>
    <_>
      <rects>
        <_>
          6 17 2 6 -1.</_>
        <_>
          6 19 2 2 3.</_></rects>
      <tilted>0</tilted></_>
    <_>
      <rects>
        <_>
          7 9 4 8 -1.</_>
        <_>
          7 9 2 4 2.</_>
        <_>
          9 13 2 4 2.</_></rects>
      <tilted>0</tilted></_>
    <_>
      <rects>
        <_>
          7 14 2 4 -1.</_>
        <_>
          7 16 2 2 2.</_></rects>
      <tilted>0</tilted></_>
    <_>
      <rects>
        <_>
          7 14 6 6 -1.</_>
        <_>
          7 17 6 3 2.</_></rects>
      <tilted>0</tilted></_>
    <_>
      <rects>
        <_>
          8 4 12 12 -1.</_>
        <_>
          14 4 6 12 2.</_></rects>
      <tilted>0</tilted></_>
    <_>
      <rects>
        <_>
          8 24 5 6 -1.</_>
        <_>
          8 27 5 3 2.</_></rects>
      <tilted>0</tilted></_>
    <_>
      <rects>
        <_>
          11 4 7 6 -1.</_>
        <_>
          11 7 7 3 2.</_></rects>
      <tilted>0</tilted></_>
    <_>
      <rects>
        <_>
          11 20 8 3 -1.</_>
        <_>
          11 21 8 1 3.</_></rects>
      <tilted>0</tilted></_>
    <_>
      <rects>
        <_>
          12 18 9 6 -1.</_>
        <_>
          12 20 9 2 3.</_></rects>
      <tilted>0</tilted></_>
    <_>
      <rects>
        <_>
          12 19 4 6 -1.</_>
        <_>
          12 22 4 3 2.</_></rects>
      <tilted>0</tilted></_>
    <_>
      <rects>
        <_>
          12 20 17 4 -1.</_>
        <_>
          12 22 17 2 2.</_></rects>
      <tilted>0</tilted></_>
    <_>
      <rects>
        <_>
          13 21 7 9 -1.</_>
        <_>
          13 24 7 3 3.</_></rects>
      <tilted>0</tilted></_>
    <_>
      <rects>
        <_>
          14 8 12 20 -1.</_>
        <_>
          14 8 6 10 2.</_>
        <_>
          20 18 6 10 2.</_></rects>
      <tilted>0</tilted></_>
    <_>
      <rects>
        <_>
          15 4 4 1 -1.</_>
        <_>
          17 4 2 1 2.</_></rects>
      <tilted>0</tilted></_>
    <_>
      <rects>
        <_>
          15 5 4 1 -1.</_>
        <_>
          17 5 2 1 2.</_></rects>
      <tilted>0</tilted></_>
    <_>
      <rects>
        <_>
          16 8 10 20 -1.</_>
        <_>
          16 8 5 10 2.</_>
        <_>
          21 18 5 10 2.</_></rects>
      <tilted>0</tilted></_>
    <_>
      <rects>
        <_>
          16 16 6 10 -1.</_>
        <_>
          19 16 3 10 2.</_></rects>
      <tilted>0</tilted></_>
    <_>
      <rects>
        <_>
          18 5 12 14 -1.</_>
        <_>
          22 5 4 14 3.</_></rects>
      <tilted>0</tilted></_>
    <_>
      <rects>
        <_>
          19 14 2 9 -1.</_>
        <_>
          19 17 2 3 3.</_></rects>
      <tilted>0</tilted></_>
    <_>
      <rects>
        <_>
          21 4 4 6 -1.</_>
        <_>
          21 6 4 2 3.</_></rects>
      <tilted>0</tilted></_>
    <_>
      <rects>
        <_>
          21 9 4 12 -1.</_>
        <_>
          21 13 4 4 3.</_></rects>
      <tilted>0</tilted></_>
    <_>
      <rects>
        <_>
          21 17 6 9 -1.</_>
        <_>
          23 17 2 9 3.</_></rects>
      <tilted>0</tilted></_>
    <_>
      <rects>
        <_>
          21 20 3 3 -1.</_>
        <_>
          21 21 3 1 3.</_></rects>
      <tilted>0</tilted></_>
    <_>
      <rects>
        <_>
          21 21 3 6 -1.</_>
        <_>
          22 21 1 6 3.</_></rects>
      <tilted>0</tilted></_>
    <_>
      <rects>
        <_>
          22 17 3 6 -1.</_>
        <_>
          23 17 1 6 3.</_></rects>
      <tilted>0</tilted></_>
    <_>
      <rects>
        <_>
          22 17 6 6 -1.</_>
        <_>
          24 17 2 6 3.</_></rects>
      <tilted>0</tilted></_>
    <_>
      <rects>
        <_>
          24 8 2 3 -1.</_>
        <_>
          24 9 2 1 3.</_></rects>
      <tilted>0</tilted></_></features></cascade>
</opencv_storage>
