<?xml version="1.0"?>
<opencv_storage>
<stage4>
  <maxWeakCount>9</maxWeakCount>
  <stageThreshold>-8.9821261167526245e-01</stageThreshold>
  <weakClassifiers>
    <_>
      <internalNodes>
        0 -1 365404 6.7357234656810760e-03</internalNodes>
      <leafValues>
        -8.5426354408264160e-01 8.0000001192092896e-01</leafValues></_>
    <_>
      <internalNodes>
        0 -1 365519 2.9856692999601364e-03</internalNodes>
      <leafValues>
        -5.9319913387298584e-01 4.9891793727874756e-01</leafValues></_>
    <_>
      <internalNodes>
        0 -1 176552 -3.0421512201428413e-03</internalNodes>
      <leafValues>
        -8.7949556112289429e-01 2.9920497536659241e-01</leafValues></_>
    <_>
      <internalNodes>
        0 -1 176335 1.1647341307252645e-03</internalNodes>
      <leafValues>
        1.9539524614810944e-01 -1.</leafValues></_>
    <_>
      <internalNodes>
        0 -1 152307 5.4131327196955681e-03</internalNodes>
      <leafValues>
        -7.9359352588653564e-01 2.7273431420326233e-01</leafValues></_>
    <_>
      <internalNodes>
        0 -1 380900 -2.4160326574929059e-04</internalNodes>
      <leafValues>
        -9.5054483413696289e-01 2.1076568961143494e-01</leafValues></_>
    <_>
      <internalNodes>
        0 -1 347664 -1.0637247469276190e-03</internalNodes>
      <leafValues>
        -7.3461449146270752e-01 3.0947661399841309e-01</leafValues></_>
    <_>
      <internalNodes>
        0 -1 298651 2.7258938644081354e-04</internalNodes>
      <leafValues>
        2.2168965637683868e-01 -9.2466938495635986e-01</leafValues></_>
    <_>
      <internalNodes>
        0 -1 299365 -4.4943729881197214e-04</internalNodes>
      <leafValues>
        -9.6399146318435669e-01 2.1868410706520081e-01</leafValues></_></weakClassifiers></stage4>
</opencv_storage>
