<?xml version="1.0"?>
<opencv_storage>
<stage5>
  <maxWeakCount>8</maxWeakCount>
  <stageThreshold>-7.7722078561782837e-01</stageThreshold>
  <weakClassifiers>
    <_>
      <internalNodes>
        0 -1 131355 -4.5878915116190910e-03</internalNodes>
      <leafValues>
        2.3076923191547394e-01 -8.9233279228210449e-01</leafValues></_>
    <_>
      <internalNodes>
        0 -1 371640 8.7348921224474907e-03</internalNodes>
      <leafValues>
        -6.6557520627975464e-01 5.3395909070968628e-01</leafValues></_>
    <_>
      <internalNodes>
        0 -1 265274 -1.7129637300968170e-02</internalNodes>
      <leafValues>
        5.6846076250076294e-01 -5.6968009471893311e-01</leafValues></_>
    <_>
      <internalNodes>
        0 -1 102669 -2.6300862431526184e-02</internalNodes>
      <leafValues>
        5.1923799514770508e-01 -5.5847024917602539e-01</leafValues></_>
    <_>
      <internalNodes>
        0 -1 334282 6.0919579118490219e-02</internalNodes>
      <leafValues>
        -4.4811934232711792e-01 6.1664640903472900e-01</leafValues></_>
    <_>
      <internalNodes>
        0 -1 360818 -7.0441327989101410e-04</internalNodes>
      <leafValues>
        -8.8417071104049683e-01 3.6345905065536499e-01</leafValues></_>
    <_>
      <internalNodes>
        0 -1 364838 -2.2749491035938263e-02</internalNodes>
      <leafValues>
        8.1096506118774414e-01 -3.6132171750068665e-01</leafValues></_>
    <_>
      <internalNodes>
        0 -1 187016 2.1548010408878326e-02</internalNodes>
      <leafValues>
        3.2183450460433960e-01 -1.</leafValues></_></weakClassifiers></stage5>
</opencv_storage>
